
//<![CDATA[

// a few things don't have var in front of them - they update already existing variables the game needs
lanesSide = 3;
patchesAhead = 50;
patchesBehind = 10;
trainIterations = 500000;

// the number of other autonomous vehicles controlled by your network
otherAgents = 0; // max of 9

var width = lanesSide * 2 + 1;
var height = patchesAhead + patchesBehind;
var num_inputs = width * height;
var num_actions = 5;
var temporal_window = 0;

var layer_defs = [];
    layer_defs.push({
    type: 'input',
    out_sx: width,
    out_sy: height,
    out_depth: 1
});
layer_defs.push({
    type: 'fc',
    num_neurons: 36,
    activation: 'relu'
});
layer_defs.push({
    type: 'fc',
    num_neurons: 24,
    activation: 'relu'
});
layer_defs.push({
    type: 'fc',
    num_neurons: 24,
    activation: 'relu'
});
layer_defs.push({
    type: 'fc',
    num_neurons: 24,
    activation: 'tanh'
});
layer_defs.push({
    type: 'regression',
    num_neurons: num_actions
});

var tdtrainer_options = {
    learning_rate: 0.001,
    momentum: 0.0,
    batch_size: 128,
    l2_decay: 0.01
};

var opt = {};
opt.temporal_window = temporal_window;
opt.experience_size = 100000;
opt.start_learn_threshold = 5000;
opt.gamma = 0.98;
opt.learning_steps_total = 500000;
opt.learning_steps_burnin = 1000;
opt.epsilon_min = 0.0;
opt.epsilon_test_time = 0.0;
opt.layer_defs = layer_defs;
opt.tdtrainer_options = tdtrainer_options;

brain = new deepqlearn.Brain(num_inputs, num_actions, opt);

learn = function (state, lastReward) {
brain.backward(lastReward);
var action = brain.forward(state);

draw_net();
draw_stats();

return action;
}

//]]>

/*###########*/
if (brain) {
brain.value_net.fromJSON({"layers":[{"out_depth":1,"out_sx":7,"out_sy":60,"layer_type":"input"},{"out_depth":36,"out_sx":1,"out_sy":1,"layer_type":"fc","num_inputs":420,"l1_decay_mul":0,"l2_decay_mul":1,"filters":[{"sx":1,"sy":1,"depth":420,"w":{"0":0.1632025867321483,"1":0.1122990826773885,"2":0.19082095209188943,"3":-0.1836241123412261,"4":0.18262431587473701,"5":0.04568637789184373,"6":0.02550905084433666,"7":-0.00231101988692838,"8":-0.04681878672655468,"9":0.19670564239093655,"10":-0.04949916919028683,"11":-0.008911177294419108,"12":0.3711848029728742,"13":-0.15805721138358333,"14":0.05532603692856457,"15":0.0841079740574642,"16":-0.018527194408475653,"17":-0.06312453582197396,"18":0.013959932845035442,"19":0.10920116341355247,"20":-0.14115269399066319,"21":0.1390880407940528,"22":0.1824739144181318,"23":-0.20988978315615917,"24":-0.06203561626180769,"25":0.0526636961245741,"26":-0.17144690325403775,"27":0.06664061735980742,"28":0.0410597403761742,"29":0.07775489177832545,"30":-0.18279833380649643,"31":0.17049425226834763,"32":-0.07355585352335196,"33":-0.003103756811232416,"34":-0.0032609274525399923,"35":-0.15043183951354913,"36":0.12456307724414875,"37":-0.007919194510123628,"38":0.23388436273220908,"39":0.04675252786325794,"40":-0.03600187636947638,"41":0.23460799084760844,"42":0.01727212688298893,"43":-0.1112562434294026,"44":0.3258352880934049,"45":-0.12632247885564052,"46":0.15548159485144328,"47":-0.005656643911578979,"48":0.042836630958488255,"49":-0.014204703513752526,"50":-0.20303543693720993,"51":0.16332071292369174,"52":-0.18146033576265938,"53":0.07393243549048427,"54":0.0472629751848045,"55":-0.17166699817002226,"56":-0.16710681095714514,"57":0.02501748153746557,"58":-0.03997661718885721,"59":-0.06695297570346984,"60":0.00815779746770362,"61":-0.1454158059668042,"62":-0.174905810708935,"63":-0.011349905922262045,"64":0.12721573294705862,"65":-0.025627245568541034,"66":-0.009783118808530427,"67":0.03315560376878859,"68":-0.12571375592960765,"69":-0.18913877028650988,"70":-0.11370015498389861,"71":0.248877904258886,"72":-0.28598657946588235,"73":-0.014134258631066743,"74":-0.020770974116522928,"75":0.017006281145437434,"76":0.1247025658267114,"77":0.01591389179410294,"78":-0.040975994927630655,"79":-0.07492802850045294,"80":-0.11189352383618491,"81":0.17441519431496952,"82":0.18689590489391344,"83":-0.08966809014596412,"84":0.01371392564520389,"85":0.024790417903946017,"86":0.13773403968239317,"87":0.04857592799883441,"88":0.054063702931725396,"89":0.12414367265327457,"90":0.11628380640899791,"91":-0.004984493342598919,"92":-0.18041957716556878,"93":-0.12384378050339988,"94":-0.2219301585740226,"95":-0.06060941412047919,"96":0.000554082146159817,"97":-0.010846723791083009,"98":0.06522700423948169,"99":-0.04663526578635051,"100":-0.29909611046348583,"101":-0.18575237264862152,"102":-0.011086509790470604,"103":-0.1639206219090247,"104":-0.054980092055102535,"105":0.1655976207053108,"106":0.0021944282624993647,"107":-0.08337039882339577,"108":0.006822921549462918,"109":0.0450083215206155,"110":-0.08538982321362261,"111":0.1561695088363188,"112":0.03616153218752277,"113":-0.0975699784528486,"114":-0.02031292268497719,"115":-0.04752668782271567,"116":0.07479226683112222,"117":0.13613996632449718,"118":-0.09297831594986632,"119":0.07610661747334789,"120":-0.15099956322469318,"121":0.22863531238376433,"122":-0.083100315652235,"123":0.15113540229489275,"124":-0.020834123994746923,"125":0.13023409535983493,"126":-0.1634344288868451,"127":-0.05744875818263664,"128":0.06607831986947757,"129":-0.00038552530653440523,"130":0.14641688008797582,"131":0.22086716677770293,"132":0.03630133943562366,"133":-0.21844100628206398,"134":-0.06892397836996858,"135":0.12339456634964086,"136":-0.0032961964476813225,"137":-0.02334831032980725,"138":0.21637457517227193,"139":0.16867366786189578,"140":-0.11899020223690525,"141":-0.0012960168039091672,"142":0.14505716676239966,"143":-0.03723126484967825,"144":-0.11537725302555041,"145":0.09815833380662667,"146":0.17336006345820784,"147":-0.22150715512836716,"148":0.14927857155551305,"149":0.08566511643110758,"150":-0.17084041261635882,"151":0.31426806383417777,"152":0.11940982515450754,"153":0.28118389052100723,"154":-0.13294215881519503,"155":-0.0728849236705177,"156":0.09883843860901666,"157":-0.02390982680771364,"158":0.1542715790099004,"159":-0.023981399520899414,"160":-0.08675583563952888,"161":-0.12281662772278511,"162":-0.1452363804338186,"163":0.23686649603285387,"164":-0.07165401882015429,"165":0.23368310184766974,"166":-0.04283607051785449,"167":0.08729541310466227,"168":0.05890086756080497,"169":-0.18153757548012592,"170":0.25187774575104244,"171":0.19280308282398587,"172":0.07966075094686217,"173":-0.05600428827291955,"174":-0.04572884556254002,"175":0.11025845079584083,"176":-0.10669216851740672,"177":0.16088500602200487,"178":0.07430808430282529,"179":-0.18193722216753327,"180":0.20958307359191441,"181":-0.14881900759228447,"182":0.054745845638295335,"183":0.02810190872270708,"184":0.19314192359053856,"185":-0.06638513083415637,"186":-0.023601951340944873,"187":0.13953299378608028,"188":-0.035688663838577606,"189":-0.07478706452069228,"190":0.10711858376431956,"191":0.12224829473666662,"192":0.06081496947596657,"193":0.16198410889206216,"194":0.09596926467293991,"195":-0.020443545923585132,"196":0.05365853352026071,"197":0.108984966993272,"198":-0.06195947318451406,"199":-0.004132200479417068,"200":0.19836267960275317,"201":0.08024621088301033,"202":-0.07613276691976484,"203":-0.04352666753938611,"204":-0.08196804691082558,"205":0.1878037143065835,"206":-0.05817681312751799,"207":0.24701476403912961,"208":0.13255738965712768,"209":-0.0717331116341001,"210":0.1728683570350714,"211":0.05067688329309439,"212":0.2253700732947931,"213":0.2511913843879789,"214":0.17726419557522302,"215":0.003392247935281259,"216":-0.2430302154787581,"217":0.22360111529229335,"218":0.07624713754286941,"219":0.2599872623438287,"220":0.31245989001756297,"221":0.1937968138385895,"222":-0.031356575252718066,"223":-0.09734889412130386,"224":-0.004918604711503761,"225":0.2668224063895042,"226":0.1286955292198769,"227":0.31317109117234954,"228":0.2224253299333143,"229":0.1614822658196834,"230":-0.019757038557457956,"231":0.05771281019064175,"232":0.20062363559556215,"233":0.0030573254817137735,"234":0.2907870135238883,"235":0.4636779967943133,"236":0.011756978471334917,"237":-0.07003848609210385,"238":-0.020075146366613443,"239":0.18728900229537288,"240":-0.1269553640822962,"241":0.22121345588375108,"242":0.2792281725963597,"243":-0.007853261743889294,"244":0.10839778771289307,"245":-0.15932357765300847,"246":0.03552689851538568,"247":0.23027434963119395,"248":0.39088376423966376,"249":0.40353773421504524,"250":-0.030436912011327928,"251":-0.030909137486207678,"252":-0.03237374882073897,"253":-0.046414987637984705,"254":0.4128758300830445,"255":0.2530156454285951,"256":0.46071102240407613,"257":0.09261781191270406,"258":0.015760586425820844,"259":-0.03618014637557046,"260":0.11367498635669984,"261":0.29911746797688427,"262":0.3882741676385715,"263":-0.055577553576107774,"264":-0.03407308573299135,"265":-0.16041660977495167,"266":0.09278488735926413,"267":-0.15309968025401383,"268":0.3503759852998173,"269":0.2712704422261923,"270":-0.06790641434525631,"271":0.04677268678431102,"272":-0.044185277290957274,"273":0.17648041357163102,"274":-0.03392476972537123,"275":-0.1284664959067702,"276":0.1119153476331125,"277":-0.37934305881214114,"278":-0.0019905679953347534,"279":0.0035146911968231215,"280":0.022460068832600644,"281":0.03751592191677001,"282":0.004112408306143546,"283":0.14030418944523076,"284":0.14681366026453216,"285":0.03480984341754455,"286":-0.21730686790062603,"287":0.10144204759683471,"288":0.004016643286608032,"289":0.051201735923421234,"290":0.13167104918562503,"291":-0.07385824759041223,"292":-0.11539020672286533,"293":0.060367819043441545,"294":0.18987985118374187,"295":0.21401567493404064,"296":-0.07873294336366289,"297":0.2392969278567847,"298":-0.14859243573148087,"299":0.1771794078430808,"300":0.08439965243814583,"301":0.08808210943606933,"302":0.12202409710632049,"303":-0.24460908072491572,"304":-0.0779342462448379,"305":-0.2390232953181306,"306":0.03427912981011489,"307":-0.20379584676735818,"308":0.11264641916636609,"309":0.005415334291572134,"310":-0.4630749750447743,"311":0.3079345661842524,"312":-0.5746246859533408,"313":0.06836265561863342,"314":-0.21108206326426854,"315":0.11640426624727301,"316":0.18077813136945992,"317":-0.606682834087216,"318":0.40472604295762815,"319":-0.6624116626772897,"320":0.15146341616471828,"321":0.09784324294159738,"322":-0.061239435555646475,"323":0.17374573293357798,"324":-0.6154986196526134,"325":0.4949504638962754,"326":-0.49811101239682704,"327":0.27165904897543103,"328":-0.09035590991537258,"329":-0.0639510133204855,"330":0.07292384077155112,"331":-0.5332260437828902,"332":0.5624671555847451,"333":-0.4165169244052899,"334":0.11103473630310474,"335":-0.03981100595498065,"336":-0.04375947012609673,"337":0.12914305731431797,"338":-0.6351810675409184,"339":0.15869218675816615,"340":-0.6569740912801639,"341":-0.022432834537001647,"342":-0.23715814067010238,"343":0.03589264159871843,"344":-0.1556170117181565,"345":-0.7699033763612156,"346":0.07704549487933952,"347":-0.7987490396539522,"348":-0.08266797029730653,"349":-0.20154610960423752,"350":-0.09682523887417822,"351":-0.10455926566685306,"352":-0.569677686786765,"353":0.08721442232599369,"354":-0.725758448968129,"355":-0.07593566315564615,"356":-0.02375793435963301,"357":-0.05772548911317934,"358":-0.012545111272635584,"359":-0.30580571097896697,"360":0.06744122521938745,"361":-0.5887756126767258,"362":-0.19077060339155746,"363":-0.28161420885931565,"364":-0.1185498453616032,"365":-0.021664812559828318,"366":-0.3185178413135325,"367":0.05639888195120974,"368":-0.5005118679436691,"369":-0.032248568937232575,"370":-0.2166487274909331,"371":-0.054873648763692016,"372":-0.1902562761595817,"373":-0.20296506160793723,"374":0.08103956700969031,"375":-0.10213362259712323,"376":-0.19747725035683417,"377":0.08274885638532084,"378":-0.14779468167135834,"379":0.006359584983745965,"380":-0.09786845460072786,"381":0.005531998829741301,"382":-0.14167417341583108,"383":-0.1637211294113131,"384":0.010509741898790005,"385":-0.1448694046397957,"386":-0.08649696159786986,"387":-0.16557632885285234,"388":-0.029326926955330956,"389":-0.30770488175108845,"390":-0.049668052103118455,"391":0.07724934811848452,"392":-0.016837124005195745,"393":-0.12730124564866072,"394":-0.2678199905207018,"395":-0.06000856872208431,"396":-0.09608467626327204,"397":0.10184392805156604,"398":0.2052730980226103,"399":0.16587270925408001,"400":-0.05183768950565775,"401":-0.339248575514609,"402":-0.1148851648211874,"403":-0.4867588560507699,"404":0.06930621414410142,"405":0.08473958209183363,"406":0.202548827479118,"407":-0.16729230544018364,"408":-0.16583724549245527,"409":-0.35314261886655834,"410":-0.28494619287303774,"411":0.09735911240820296,"412":0.1635778947556725,"413":0.20737925467337237,"414":-0.09407755643419788,"415":-0.21759305236287355,"416":-0.14969313112649146,"417":-0.5371155882608638,"418":0.12630979177491836,"419":-0.008651479357454613}},{"sx":1,"sy":1,"depth":420,"w":{"0":-0.11196815791281815,"1":-0.006839930227769879,"2":0.11811330073914461,"3":-0.04309450638029229,"4":-0.1548006045371721,"5":0.0405531536073174,"6":0.012645102720761242,"7":-0.14234980196757072,"8":-0.1755504205577188,"9":0.13364401244812776,"10":-0.09772914339951688,"11":-0.1609786462539126,"12":-0.0828152979254031,"13":-0.1874804461154497,"14":-0.0567189895553177,"15":-0.04041551848639548,"16":0.054879729385392796,"17":0.0347799933184022,"18":-0.15068790988182323,"19":-0.22955804672394586,"20":0.10416664825642362,"21":0.10462533910858254,"22":-0.27455984469732303,"23":0.061410773948298886,"24":0.03146650522457084,"25":-0.04593529592375874,"26":-0.0797726460728505,"27":0.10620565290576808,"28":0.0008837241343030114,"29":-0.21717296848083856,"30":0.15290018943881614,"31":-0.1427794396518328,"32":-0.11998834070877833,"33":-0.10762557603324976,"34":0.03405002098741542,"35":-0.07692251939722042,"36":0.06621982684354716,"37":0.07021221244233496,"38":-0.2662625425088912,"39":-0.2483781977259413,"40":0.02378406089019704,"41":0.036901762653372756,"42":0.013368205793440455,"43":-0.07699964224433395,"44":0.1931678089212333,"45":0.014547707227265144,"46":-0.18479120003112479,"47":0.14179636775836152,"48":-0.005372057710251692,"49":0.130829925559883,"50":-0.0053646550365259475,"51":-0.1536112387091557,"52":0.0946269613402019,"53":0.01105987114342115,"54":0.03274352429612517,"55":0.008320894664348497,"56":0.04728377612395805,"57":-0.10369941932298309,"58":-0.15231031845384077,"59":0.07918092442623043,"60":-0.048630051063909316,"61":-0.027806886880549258,"62":0.044699418753646795,"63":0.13262482418584112,"64":-0.08534474400257644,"65":-0.05749195498101052,"66":-0.030727430900659988,"67":-0.05344242913501222,"68":0.11853551247693055,"69":0.12786873092422768,"70":0.004817308231962862,"71":0.06763175222482155,"72":0.040317963781563174,"73":-0.052559061197682104,"74":0.042439583173847696,"75":0.09017758774927491,"76":0.024162978292700664,"77":-0.01697544540692954,"78":0.0011755270980789347,"79":0.1181113290235557,"80":0.16248578281726553,"81":0.049138575754085874,"82":0.11970043418817314,"83":-0.14150402960385505,"84":-0.016977534446866813,"85":0.0783147408309775,"86":-0.02769150774921009,"87":0.07856077519311276,"88":0.08377867023749347,"89":0.12588127199343527,"90":-0.09461384293040752,"91":0.11814173587912248,"92":-0.049335275677419244,"93":0.027380473367080875,"94":-0.14154019982980517,"95":0.06724803303159897,"96":0.167940788434501,"97":0.017706337370719024,"98":0.010080181963363266,"99":-0.15822326545683413,"100":0.04958892538305468,"101":0.022445553023107395,"102":-0.02452175058545492,"103":0.1996556307311131,"104":0.0820856209954427,"105":0.12444948145054313,"106":0.04854270908491168,"107":-0.00265938305497917,"108":0.1301843595493233,"109":-0.06479396641747995,"110":-0.04444575652800979,"111":0.07159053169113455,"112":0.006439141460658465,"113":0.13108302430324698,"114":-0.0987158838942429,"115":-0.12846834521061673,"116":-0.10390089644831921,"117":-0.17084873932108494,"118":0.010370476267101887,"119":0.06968807985140633,"120":0.028830633498246785,"121":0.10244709079139665,"122":0.02327441684777157,"123":-0.2122123821128026,"124":0.04434283501347794,"125":-0.1337172757668919,"126":-0.14188545113658108,"127":-0.09585573716457589,"128":0.2483689095619638,"129":-0.11425800640620232,"130":-0.13451033031794313,"131":-0.07623526357351608,"132":-0.24705017142199687,"133":-0.011800774513092234,"134":-0.13296389662529845,"135":-0.14444800869532912,"136":-0.09115494065598063,"137":-0.1521734631314214,"138":0.05560703927158248,"139":-0.017234896466385336,"140":0.03373210709370042,"141":-0.030496294015106902,"142":0.14942913989551462,"143":-0.0639024324183817,"144":-0.06652286158679485,"145":0.024498215238277082,"146":-0.10655766314236442,"147":0.04762999416659057,"148":0.047808533413633655,"149":0.21068183175394628,"150":0.12049849509721816,"151":0.00156425011708324,"152":0.09366904082810197,"153":0.04216489512588401,"154":0.055565949114190355,"155":0.13813714363689458,"156":-0.09877285636390119,"157":0.004981188246001124,"158":0.0789738651540505,"159":-0.09745266476174197,"160":0.06097016182919495,"161":-0.014004137886302394,"162":0.00505639696322306,"163":0.10515604939452049,"164":-0.02430285660104534,"165":-0.11064772932008755,"166":-0.06643293814615625,"167":-0.008019686516838279,"168":0.009916050606398021,"169":-0.03482487263011443,"170":0.1272128697302179,"171":-0.0034345590852571523,"172":-0.07842820998341794,"173":-0.030271401243172187,"174":0.08798494155758761,"175":-0.07582113130217895,"176":0.12518339068254317,"177":0.17877877379865165,"178":0.0218522436466526,"179":-0.07639884889763618,"180":-0.05050754166740996,"181":0.12384377685288672,"182":0.019228685484064024,"183":-0.0391125550950103,"184":0.16989764570293509,"185":0.10318641219489699,"186":-0.024602633952092643,"187":0.04942148116758563,"188":-0.03792398895079586,"189":-0.005738891523318566,"190":-0.003529459222926814,"191":0.12069961697896539,"192":0.25680001786263607,"193":0.07286571623502847,"194":0.10633616476337863,"195":-0.11503787434790891,"196":0.08846032136808962,"197":0.06478988643922665,"198":0.005555650347550804,"199":0.26242450876806594,"200":-0.15137104034114782,"201":0.07534465495668802,"202":-0.06970700820957498,"203":0.06750367124985952,"204":0.0052582648672283416,"205":0.21101264614196807,"206":0.2347035671259545,"207":-0.01478078504200365,"208":0.16804626088118937,"209":-0.05531343203675864,"210":-0.1420795494329695,"211":-0.13940421579957604,"212":0.06415796226594606,"213":0.3518028718041303,"214":-0.0007238378750642001,"215":-0.10262923468462334,"216":-0.10989369767368877,"217":-0.02810370662984348,"218":-0.02710113399855271,"219":-0.05115923280401159,"220":0.30283400168682295,"221":0.11765175437392765,"222":-0.09503505713352918,"223":0.005815775627833281,"224":-0.16303439867208627,"225":-0.016483067876691383,"226":-0.026002723191664308,"227":0.4205306924244775,"228":0.09999482625031425,"229":0.15637261506111094,"230":0.023213441304700565,"231":0.038464545951450026,"232":-0.11202289051758153,"233":-0.07924087104318019,"234":0.25262831177402717,"235":0.17624681240813417,"236":-0.13135022308639802,"237":0.07443752871039286,"238":-0.12575976812884312,"239":-0.12884085206052473,"240":0.15906705248725347,"241":0.4136169874756521,"242":0.16442983437019495,"243":0.07835342496629912,"244":-0.10858799508113905,"245":-0.08404501132017582,"246":0.02345898885791515,"247":-0.08216191893551107,"248":0.6791920435116476,"249":0.05392667917429536,"250":-0.03146458454452767,"251":-0.03472740885921276,"252":-0.07085068038251235,"253":0.027184573481327582,"254":-0.05872964012783321,"255":0.5319505534094175,"256":0.25615559808530347,"257":0.026679180654366006,"258":0.09294057339895824,"259":-0.03062505830950894,"260":0.02706707396381152,"261":-0.018236751773411233,"262":0.9267098010984292,"263":0.37579842660702883,"264":0.03673573613491373,"265":0.06869896360093615,"266":-0.08734212853891966,"267":0.08516375135419486,"268":0.018419268132297408,"269":0.8207525257506084,"270":0.3694673343203369,"271":-0.11735020982762841,"272":0.0026433190384342288,"273":-0.15297664096420813,"274":-0.04392460602026107,"275":-0.29971060205488825,"276":0.9539605972042527,"277":0.23404316502827732,"278":-0.04054470583386775,"279":0.07361950650750498,"280":0.0769730290052924,"281":-0.057476196937725564,"282":-0.3045018965158533,"283":1.0377997730191935,"284":0.45600551048783433,"285":0.09950460154862843,"286":0.045122358685141965,"287":-0.08824911635741918,"288":-0.08117039962498375,"289":-0.42357287199470633,"290":0.8182437613653277,"291":0.4404665862145871,"292":-0.04210099037420187,"293":-0.017694771870880446,"294":0.018118850135801928,"295":-0.13363117819629025,"296":-0.31912369781153366,"297":0.6175993407125352,"298":0.3824654643532288,"299":-0.07826494463164914,"300":-0.04574233404047487,"301":0.02595651670590947,"302":-0.08677584987649695,"303":-0.5578131079395231,"304":1.2341276778024166,"305":0.11359920018942113,"306":-0.10754421565276266,"307":-0.04366864517814249,"308":-0.016636084586954075,"309":-0.11985947776874385,"310":-0.7679821948619993,"311":0.6571852754726625,"312":0.0729264613907561,"313":-0.04355502614309603,"314":-0.12903046893314993,"315":-0.0497912589082312,"316":-0.17741156833390187,"317":-0.7826093945241039,"318":0.7150187375775812,"319":0.10225635714745548,"320":-0.13955983224051718,"321":-0.06717078216629618,"322":0.027604025327243546,"323":-0.008445557040472326,"324":-0.7552477985682723,"325":1.0975873565493062,"326":0.16393739238791583,"327":-0.04893190499980587,"328":-0.052247911593558634,"329":0.03232099489649151,"330":0.11477909208656696,"331":-0.23949803844055925,"332":-0.3134796971713765,"333":0.03412883970862655,"334":-0.033255449951599576,"335":-0.14988452902088883,"336":-0.10143945642866187,"337":-0.10793000374270925,"338":-0.12058250493251349,"339":0.04895601622218415,"340":-0.12663647278784612,"341":-0.07662174143934415,"342":-0.05909151248683645,"343":0.09351455455453223,"344":0.07324314687632945,"345":-0.26046034540085167,"346":-0.4871208105875199,"347":-0.021923430586530852,"348":-0.07635766977158487,"349":0.14429824877403324,"350":0.10751328682690654,"351":0.032210540143536213,"352":-0.2746503285847273,"353":0.41399307186638157,"354":-0.03420667951866795,"355":-0.16068145420498736,"356":-0.08332504416387268,"357":0.020542834170738978,"358":-0.10254632137931509,"359":0.15389774408366616,"360":0.406074610196635,"361":0.006235743917805582,"362":-0.0733029806615161,"363":0.0048143239459294196,"364":0.024836936425299293,"365":0.045564988704976654,"366":0.196746741129415,"367":0.3293088530306501,"368":0.12710314496949393,"369":-0.01393442874894175,"370":0.04897416007986414,"371":-0.01489304649355251,"372":-0.10138632990537268,"373":0.13807059813340597,"374":0.3115744627368049,"375":-0.10445856978536294,"376":0.181835498135124,"377":0.09077842026511594,"378":0.0968773613045958,"379":-0.09224853448627043,"380":0.052326416612935696,"381":-1.3550283690551101,"382":-0.13993382919163685,"383":0.09288513244119283,"384":-0.03621430209728742,"385":-0.07812646072095893,"386":-0.07411774402815507,"387":-0.04542696275355561,"388":-1.2820267396114962,"389":0.025148052612850046,"390":-0.06145700577675053,"391":0.06279034340270344,"392":0.04697635362558718,"393":-0.146209700270813,"394":0.07845894717040719,"395":-1.136937379218345,"396":-0.10115237913599788,"397":-0.03322085528152917,"398":0.11032625695793698,"399":-0.06204180783891785,"400":-0.11557512706605919,"401":0.04723021052429473,"402":-0.06655936415594604,"403":0.007889454031399797,"404":0.06124749375435296,"405":0.030254284835502736,"406":-0.13899449096155794,"407":-0.03520571320150881,"408":0.11947689452653336,"409":0.31082773135121644,"410":0.1325221349546567,"411":0.29544581845901285,"412":0.06170556938957402,"413":-0.10937880742305658,"414":-0.08647492450794744,"415":-0.08429083752889338,"416":-0.1919683773739836,"417":-0.02849281526312124,"418":0.04838577951575391,"419":0.011460131249376202}},{"sx":1,"sy":1,"depth":420,"w":{"0":-0.29560490247294524,"1":0.024328443769111318,"2":0.14054592602293786,"3":-0.021253899616633244,"4":-0.014243533999620512,"5":0.16869461016259932,"6":-0.054030226679670584,"7":-0.18805516484089038,"8":-0.00807608557182554,"9":-0.11281935973402785,"10":-0.07414905928736455,"11":-0.013221280301421067,"12":0.262915668428396,"13":-0.04635135703754683,"14":0.0014651077203985865,"15":0.044147851566171764,"16":-0.17110281096136423,"17":0.18050020022775895,"18":-0.11118286236708695,"19":0.01771722120678417,"20":0.15937832406117367,"21":0.1539166667442019,"22":-0.020504997717780846,"23":-0.12316039131569045,"24":0.27591906146628586,"25":-0.07763061834278842,"26":0.07099845361480239,"27":0.06415808120435952,"28":-0.09683863650283159,"29":-0.15713596896353046,"30":-0.0913286331688059,"31":-0.014562129803124598,"32":0.04684558124066359,"33":0.12105661032478258,"34":-0.053876863398734536,"35":-0.03004747753455426,"36":-0.06570421093960035,"37":-0.0685054750599998,"38":-0.17181278001066394,"39":0.10433756910226652,"40":-0.09519534402863812,"41":-0.024792875253399002,"42":-0.18147978159644354,"43":0.08080199767478752,"44":-0.10926267998243769,"45":-0.08950993666715834,"46":0.10443280986721501,"47":-0.09763819754836729,"48":-0.04537200617694549,"49":-0.2415621815329538,"50":0.014795249494731936,"51":-0.08156747304026982,"52":0.03625470192521073,"53":0.03618362550330281,"54":0.0011515453787463601,"55":0.002941128665333195,"56":-0.06021439393851981,"57":0.050062413305443684,"58":-0.27090659341284334,"59":0.15942964799131026,"60":0.16279506394916698,"61":-0.15120429675381802,"62":-0.08359934561207168,"63":0.07783873965878528,"64":-0.0807891281495668,"65":0.057739231667663364,"66":0.050694972918327474,"67":0.00717555929250419,"68":-0.12819530488985012,"69":-0.002099636892271056,"70":0.0072715862479442945,"71":-0.32529690987691334,"72":-0.08792836793426467,"73":-0.0006365669284724323,"74":-0.12486341994458584,"75":0.014787042435132488,"76":0.012898523424349129,"77":0.030632446008386178,"78":-0.27475988507568455,"79":0.027603912418596846,"80":-0.042255837012549605,"81":-0.09903227281917161,"82":-0.08360475324106693,"83":0.0672902219541446,"84":0.2078642731676158,"85":-0.23225252138103922,"86":0.010218328715147098,"87":0.024750205316101337,"88":-0.015424055605514773,"89":-0.0009221934864274103,"90":0.21166349100982085,"91":0.04620983272166034,"92":-0.05540511978675885,"93":-0.10355139125209659,"94":-0.07215034740659877,"95":-0.10994561137444847,"96":0.018350396504905615,"97":0.06924500508249329,"98":-0.01360297713111769,"99":-0.21819620855606284,"100":-0.13040205953390135,"101":-0.09016501894123642,"102":-0.18568767407173659,"103":-0.12643271346984875,"104":0.019698273611834863,"105":0.07317419979292965,"106":-0.00030553836322815144,"107":-0.012398357116685809,"108":-0.019426736984584036,"109":0.025915469749327694,"110":0.0005258384279195271,"111":0.01318135788521753,"112":0.09310780923691096,"113":-0.09038651103374268,"114":-0.006868824395749048,"115":-0.3220556623883215,"116":-0.06772672267580089,"117":-0.14307994015991182,"118":-0.1488853410277368,"119":0.08238958966011713,"120":-0.11225726776693527,"121":-0.1523416888833956,"122":-0.11212550487370805,"123":-0.04961385679892212,"124":-0.043463058813285944,"125":0.02705201181450416,"126":0.15250340690905984,"127":-0.011861323470760674,"128":-0.14036191425395017,"129":-0.005164089491766353,"130":0.1988473002195492,"131":0.17433907798169118,"132":-0.10103887896537285,"133":0.27678705271546744,"134":-0.025346405672533618,"135":-0.1052438639653622,"136":-0.05682287571428091,"137":0.07528705479883388,"138":-0.05555940360456106,"139":-0.005631351545563236,"140":0.1235517686266187,"141":-0.09034393826769337,"142":0.07088840868982672,"143":0.05866632923847715,"144":0.09377798456886408,"145":-0.08196414170463698,"146":0.032252953869627586,"147":0.07222135241664022,"148":-0.23504499127105183,"149":0.03297260195783479,"150":0.07799639816720814,"151":-0.13821675248093443,"152":-0.003954122643016998,"153":-0.004019558921412871,"154":0.14780204545377962,"155":-0.1843395357076931,"156":0.14162194612194112,"157":-0.06703456471242014,"158":-0.20057887340380703,"159":0.07314995626118864,"160":-0.15934606336812837,"161":-0.07646571188826029,"162":-0.028480200200961835,"163":-0.17710069728917696,"164":0.03904182130592012,"165":0.002255068540378095,"166":0.20420233829036966,"167":0.021904520156035296,"168":0.004386333913968119,"169":-0.05056792915896291,"170":0.016369475390384254,"171":0.08646057200357193,"172":-0.09710501127122169,"173":0.07664149811599227,"174":-0.07642102439370539,"175":-0.08006308625759849,"176":0.19351472685256121,"177":-0.038650414323832864,"178":0.053682622036143525,"179":-0.0275032438334002,"180":-0.2696049616958584,"181":0.0015578616712251152,"182":-0.07923067721562461,"183":0.22520580289367095,"184":0.05798067846049689,"185":0.053056221979718904,"186":-0.05437791012505631,"187":-0.16599956266109497,"188":-0.055252665078208,"189":0.04412559286269149,"190":0.1701413908099334,"191":-0.00221471640917375,"192":0.12605748482937207,"193":-0.18770180315723145,"194":-0.06691800934407134,"195":-0.09362067951418508,"196":0.09188312206335215,"197":-0.12774547722909899,"198":-0.16776224247495375,"199":0.1522345263203961,"200":-0.1396814692008117,"201":-0.1120820054185434,"202":-0.19996675670851427,"203":0.10565417090409028,"204":0.13061084764922098,"205":-0.04260547463880647,"206":0.20903980841470157,"207":0.12657681305580487,"208":0.044482031227672844,"209":-0.21465666220219148,"210":0.050651690717802046,"211":0.1713312979651411,"212":-0.047903619210717265,"213":0.16111414501080826,"214":0.19828066735315536,"215":0.012232201444140606,"216":0.1438988497665654,"217":0.10669035018338387,"218":0.11967201188012394,"219":0.13921634243186942,"220":0.03924910335706216,"221":-0.04582377469121832,"222":0.027411330628727235,"223":-0.05667472848482453,"224":-0.13267212535968093,"225":0.11914343196088095,"226":0.16550193102479693,"227":0.07821850267146593,"228":-0.003988502520798062,"229":-0.01937114296909225,"230":0.004902622317084905,"231":0.09156859507240526,"232":-0.09858399721142462,"233":0.12308961989560005,"234":-0.003551959296500099,"235":0.019122885961250533,"236":-0.07718979142657224,"237":0.22224026101806799,"238":-0.03678709132258144,"239":-0.051391170953526445,"240":-0.059374432962258306,"241":-0.021811144888843552,"242":0.009882351030577914,"243":-0.13397599309706895,"244":0.0645602899939466,"245":-0.01390283940936627,"246":0.14185360098406288,"247":-0.12293350115939101,"248":0.019889374473759488,"249":0.2893044906300135,"250":-0.015307966335527652,"251":0.07684071463773716,"252":0.05168985110640306,"253":0.23615693980429892,"254":-0.08646496733177879,"255":0.43311122039510647,"256":0.08715653381882277,"257":-0.24040353054392505,"258":-0.06013452287899703,"259":-0.03506897618317817,"260":0.23510208576145206,"261":0.12693411922167694,"262":0.04913838368560379,"263":0.23424621688051891,"264":-0.02040362037982463,"265":-0.09445360855670296,"266":0.07022112321608574,"267":0.21902167537680933,"268":0.07769392584353903,"269":0.11078988200964564,"270":0.28576162181925324,"271":0.06355609119871042,"272":-0.08882785721833626,"273":0.08047151294257571,"274":0.0861943312444721,"275":0.0018291461629422205,"276":-0.038401622498444546,"277":0.2193487590671729,"278":-0.018392807385226258,"279":-0.07577127658755928,"280":-0.0877180185713346,"281":0.14650846717725638,"282":-0.05410417840637759,"283":-0.5120740296790626,"284":0.6285831771104717,"285":0.3673101945094469,"286":0.09868739239326259,"287":-0.050205728425490134,"288":0.16046457199008687,"289":-0.16336616092698386,"290":-0.05387201978711485,"291":-0.0012004626771900814,"292":0.21413985796912266,"293":-0.11894827265089293,"294":-0.16587852846866516,"295":0.024063603768099785,"296":0.14716249373745505,"297":-0.15298189899323467,"298":-0.24786129555606004,"299":0.0106255408258084,"300":0.051546268417913314,"301":-0.016362485703680308,"302":-0.015396876652129516,"303":-0.18205999436510678,"304":0.4345410773683936,"305":-0.12346567767688532,"306":0.11776501143118827,"307":-0.06751443600686281,"308":-0.03555704567135838,"309":0.15386160455451586,"310":-0.3701902677790455,"311":0.19954522904932467,"312":-0.6677854660940102,"313":-0.04298013942987925,"314":0.09726843188711254,"315":0.083537800644796,"316":0.12468159939833914,"317":-0.16552684375188287,"318":0.17950100832031463,"319":-0.4622350431155936,"320":0.2551044038091414,"321":-0.09063831554842582,"322":-0.09717409044302283,"323":0.2994077014615614,"324":-0.2423480324103893,"325":0.12159599661480222,"326":-0.5113207314627363,"327":0.29743899409150204,"328":-0.012394473399103205,"329":-0.14360022425946953,"330":0.2608716538916979,"331":-0.07400802241791042,"332":-0.45201483390310726,"333":-0.6419013087727081,"334":0.09693761710409372,"335":0.08576465743198611,"336":-0.1685556442251652,"337":0.08467483838683487,"338":-0.014559869833853495,"339":-0.14410848975878776,"340":-0.20860659896629097,"341":0.17545188513888477,"342":0.01530024158832345,"343":-0.14659518581961087,"344":0.13085568782581705,"345":0.23392562637751696,"346":-0.014732093982639721,"347":-0.08393544591974615,"348":0.07174962358788595,"349":0.0653979007704432,"350":-0.11628121590631474,"351":0.1192155748723593,"352":0.1304868757513314,"353":0.00195524778982144,"354":0.26617251478055576,"355":0.12078914419583242,"356":0.07964895022740735,"357":-0.05982909927861901,"358":0.0434337639163812,"359":0.3613589887364182,"360":0.04132086777132433,"361":0.28572470445901654,"362":-0.03008128303221893,"363":-0.1731991476770432,"364":0.12339874763951458,"365":-0.13087393046254606,"366":0.4782907520308937,"367":-0.03429914198734982,"368":0.05191121217500905,"369":-0.06059435679589641,"370":-0.27916653810594605,"371":-0.06968743974713958,"372":-0.3011230017988168,"373":0.10884949689824812,"374":-0.0414962549139488,"375":-0.030650361487009264,"376":-0.03860947649877739,"377":-0.12222921703715603,"378":-0.013034494228711528,"379":-0.2626252843714737,"380":0.32379052085396287,"381":0.014530736219827846,"382":0.05368341620050698,"383":0.06221141988334246,"384":0.06237173967526463,"385":-0.017222933993697488,"386":0.08365051224238373,"387":0.08010877148036982,"388":0.12039744013805849,"389":0.11581676414010679,"390":-0.07560525843390763,"391":-0.01444826471948712,"392":0.07626679186790415,"393":0.08838309309832756,"394":0.08958544658445912,"395":-0.018118571869217285,"396":-0.0138411845075511,"397":-0.03710868774727039,"398":0.008794609834478767,"399":0.003219240709732721,"400":0.13178618852857163,"401":0.2852331815918179,"402":0.13663222874699923,"403":-0.136963754403941,"404":0.2549140382123476,"405":0.10160599357782257,"406":0.002632292193954454,"407":0.02076029096813209,"408":0.05727391375972267,"409":0.35450616492272774,"410":-0.13423027767905116,"411":-0.04763285855582425,"412":-0.21213524143728582,"413":0.1862787272776609,"414":-0.11863047348311445,"415":-0.1692504972920206,"416":0.3546002338149885,"417":-0.2562815498870471,"418":-0.06781603482550223,"419":-0.14362016411357612}},{"sx":1,"sy":1,"depth":420,"w":{"0":-0.16688998227140364,"1":0.034764445223635386,"2":0.10595794065516276,"3":-0.22963473554592637,"4":0.26154102645870253,"5":0.27542513706392496,"6":0.08303144902351454,"7":0.125419565738438,"8":0.27590353401549594,"9":-0.09453560044841,"10":-0.03082366272415955,"11":0.09100536594939637,"12":0.020452202771718234,"13":0.04991013093340703,"14":0.2536765332556974,"15":0.2054399560855498,"16":-0.09510721354922755,"17":0.21678792425318402,"18":0.19308355924491377,"19":0.2570971030831767,"20":-0.11820106032486434,"21":0.26227089111172697,"22":-0.11223953040282225,"23":0.053205997810287536,"24":0.18358288688342855,"25":-0.006408331509948988,"26":0.15346883763928887,"27":-0.08095060158287454,"28":0.228783681935993,"29":-0.12439281429222927,"30":-0.04030150305576282,"31":-0.04310405418552632,"32":-0.025538957196093583,"33":0.0229563489318954,"34":0.019218934038143152,"35":-0.19036680299663047,"36":0.1131786505778895,"37":0.028460810288890998,"38":-0.1112287251161698,"39":0.04431181786180429,"40":0.22452088567680434,"41":-0.07113957954221942,"42":-0.12691360324889484,"43":0.03017859936616413,"44":-0.09859073101090053,"45":-0.17271447013168878,"46":0.12571360823373826,"47":0.031165120800643167,"48":0.1124663255918599,"49":-0.31498512699375175,"50":-0.05073174038556511,"51":0.18339675440647915,"52":-0.3710775824212152,"53":0.044911770814949785,"54":-0.04786486836068264,"55":0.17656183697371283,"56":-0.32128544908503953,"57":-0.003385062134844078,"58":-0.049714567667350565,"59":-0.12732179632239377,"60":-0.03795068638045374,"61":0.11619247138324507,"62":-0.10208597600789712,"63":-0.02549183911771415,"64":-0.058173979781803865,"65":0.00595076211942433,"66":-0.42771149744380355,"67":-0.05992392624022017,"68":0.023022354947141672,"69":-0.14962917108401405,"70":-0.04400976943055074,"71":-0.049951975138075415,"72":-0.01357605271761835,"73":-0.337956559221566,"74":-0.21555493031920275,"75":-0.14016949115251806,"76":-0.0521451803238162,"77":0.2827011881586069,"78":-0.21996969918444345,"79":0.0886395446890735,"80":-0.2648273070895283,"81":-0.29246981927724375,"82":-0.2028909583429689,"83":-0.1940507139860394,"84":0.027985360429555618,"85":-0.1934007143381787,"86":0.12658095671427944,"87":-0.008586525438359981,"88":-0.11250722125426049,"89":-0.35271735499319146,"90":0.08686810220056149,"91":0.06735986088049169,"92":0.09351857396078851,"93":-0.054396692508890745,"94":-0.04840863821143733,"95":-0.002459797324082701,"96":-0.18818839434998177,"97":0.24082986313211105,"98":0.16449681466111934,"99":-0.017470300216895846,"100":-0.11151278838126802,"101":-0.14681775496271496,"102":-0.054793225784082564,"103":-0.05088375889773827,"104":0.06108220345404574,"105":0.01664397740641717,"106":0.148972408878581,"107":0.07122776564489143,"108":0.010305254077116022,"109":0.19669685625230385,"110":-0.023080689126253183,"111":0.06709382790485528,"112":0.04741994653491314,"113":0.029113640103086872,"114":-0.11944449011552619,"115":-0.17522268370828528,"116":-0.10574008189685816,"117":0.003468165577241313,"118":-0.2559970593686911,"119":0.08189189509144383,"120":0.06514641158960237,"121":0.06608401557499978,"122":-0.02062982881055083,"123":-0.15468469468120805,"124":-0.02720783739216047,"125":-0.21561579224656682,"126":0.24132462086666448,"127":-0.43542896710487666,"128":0.012368364578088386,"129":0.07398155709195858,"130":-0.16671077463720566,"131":0.11782412704364499,"132":-0.2815946018799732,"133":0.29216829134342664,"134":-0.36317399226756303,"135":-0.09551901874477596,"136":-0.13994699585579193,"137":-0.0749332298790344,"138":-0.07027516545876387,"139":-0.31955178694930986,"140":0.09424817902616255,"141":-0.09224498055914396,"142":0.16596045829244155,"143":0.06311544098087715,"144":0.01690260522502737,"145":-0.07784653723356004,"146":-0.28698286298961895,"147":0.03205054542568524,"148":-0.15003994212970287,"149":0.028674777400138064,"150":-0.009374830268359889,"151":0.07141867332737337,"152":-0.14714272485968444,"153":-0.20277954778471896,"154":-0.043083219478262484,"155":0.004026940238024735,"156":-0.0036415577598174266,"157":-0.10805855531190621,"158":-0.11087959383586146,"159":-0.23164784628410776,"160":-0.09740552853330536,"161":-0.16362377277663984,"162":0.0023974743012960625,"163":-0.06811941564127716,"164":-0.021037141896502996,"165":-0.15400245320595388,"166":-0.116653240986651,"167":-0.014177299202191011,"168":0.12205579243593297,"169":-0.11351437473828063,"170":-0.2508532719439866,"171":0.21638045326063682,"172":-0.1114342568578005,"173":-0.11430807161273014,"174":0.019402868017928006,"175":0.23256183527254032,"176":-0.09030967996633985,"177":-0.311852618474224,"178":-0.005791546677024799,"179":0.05635344931239166,"180":0.05238399013652148,"181":-0.14423035640894888,"182":-0.10776311531388225,"183":-0.04458466600617304,"184":-0.20130907325494551,"185":0.14178054860743758,"186":0.14597867585097024,"187":0.19870792211432334,"188":-0.048818173265264705,"189":0.15968373654378928,"190":0.39491055969164024,"191":-0.1687834296640623,"192":-0.014361422266771721,"193":0.19421157193672553,"194":-0.052825072715012536,"195":-0.0036269291254959436,"196":0.12580858783124313,"197":0.2620353500467128,"198":0.008220188661396297,"199":-0.13047696705739364,"200":0.15004071090403273,"201":0.08460518911922224,"202":0.09209852075058858,"203":-0.009382346039680984,"204":0.06497324022969025,"205":-0.029077091632481577,"206":0.16398266275855333,"207":0.11051534172516352,"208":0.07426819097744283,"209":0.08675793898176433,"210":-0.08283644207274017,"211":0.1383447703380579,"212":0.16330587668098986,"213":-0.0671567561704509,"214":-0.046096240476268015,"215":-0.03537833832403814,"216":0.034711057849764235,"217":-0.08525840108523143,"218":-0.14287388896613187,"219":0.08107781296502158,"220":-0.13197861011988052,"221":-0.04770614422997787,"222":0.12726435241497674,"223":0.0045514428686366576,"224":0.028721934656524607,"225":0.0011457135011560852,"226":0.026382253352306054,"227":0.08084963734930635,"228":-0.269506722391875,"229":-0.05142328274784644,"230":-0.08630196193982825,"231":-0.14364432714757408,"232":-0.12538386627884185,"233":0.004457741677731074,"234":-0.11081334485252586,"235":-0.13768509406108342,"236":-0.13040015014684228,"237":-0.06038602394681549,"238":0.10713005924378852,"239":-0.15783869017981855,"240":0.0432741939660963,"241":-0.11207465632961293,"242":-0.3615591002765843,"243":-0.1531642327355343,"244":-0.04255716475545839,"245":0.1418528259905542,"246":0.12402258981125366,"247":0.1962906403318947,"248":0.004162351024764349,"249":-0.09322578207113358,"250":0.12576979847962294,"251":0.06123166987742126,"252":0.11426291045651789,"253":0.01811858145330742,"254":0.21207516788152775,"255":-0.026320979219235516,"256":0.07813851818999945,"257":0.1823934266276822,"258":0.1079766683642371,"259":0.14032819393857518,"260":-0.11760540821236368,"261":0.4144863607740805,"262":0.2734320112955987,"263":0.10118495340961753,"264":0.18143411282801783,"265":0.26303018236258974,"266":0.027774490102149448,"267":-0.005992507643836487,"268":0.40568288196719887,"269":0.5453239356388566,"270":0.310446966609711,"271":0.1997601904226339,"272":0.0252174006714838,"273":0.00428292617354561,"274":-0.07087100998046598,"275":0.06727813631657703,"276":0.5242651510727984,"277":0.1355187216634888,"278":0.038051783137743225,"279":0.011822638823139286,"280":0.020562589069512062,"281":0.061599567819097534,"282":0.33253465803779486,"283":0.29031314900859656,"284":0.05723257261736607,"285":-0.08898801488944526,"286":0.03152887540045425,"287":-0.012719737266159478,"288":0.07608982695691527,"289":0.19885901662495623,"290":0.22152632924298496,"291":0.20498366554349928,"292":0.06439739971703311,"293":0.22073572167455133,"294":0.018745856665426747,"295":-0.02731182784396837,"296":0.28334373810806657,"297":0.08875888828688133,"298":0.403234403744744,"299":-0.027727820333470352,"300":0.16737258940338448,"301":-0.2683989011032871,"302":0.16657523793102894,"303":-0.446117175110275,"304":-0.2656561876543678,"305":0.09314612977273465,"306":-0.2066287098034859,"307":0.1016391322951311,"308":0.10251559083472042,"309":0.18933308071732027,"310":-0.4810713319310587,"311":-0.5082128950873809,"312":0.12364969598450065,"313":-0.3129376924628861,"314":0.31766080730926965,"315":0.10474380101195248,"316":-0.02277363603229704,"317":-0.496943162371426,"318":-0.5389820364746285,"319":-0.006614658312049268,"320":-0.06441145003449578,"321":-0.13480697520412058,"322":0.24580973128509864,"323":-0.013769049908111168,"324":-0.5796081876842617,"325":-0.4362918792528734,"326":-0.15206416149950658,"327":0.08571308752736607,"328":0.03176901501578482,"329":0.1919427318985056,"330":-0.19472203909994554,"331":0.09983342675339243,"332":-0.1037369820994555,"333":0.017850036097409244,"334":0.14138226701018627,"335":0.07728110074351253,"336":0.020694428776169248,"337":-0.11681332672840344,"338":-0.4210527161667444,"339":0.17581031695061786,"340":-0.00025436251585213347,"341":0.1374730581364633,"342":-0.17088833623312188,"343":0.14939924504323704,"344":0.007856599165435517,"345":-0.5649399542891457,"346":0.18564784338671586,"347":-0.21672119310060217,"348":-0.030410417717806896,"349":-0.022046153162227335,"350":-0.028184546104761937,"351":-0.17455589940078411,"352":-0.5537614724658803,"353":0.09742551274567443,"354":-0.1468042345953357,"355":0.1624190153103061,"356":-0.06428723407053337,"357":0.11381802577421352,"358":-0.09247642238331046,"359":-0.1909908229303273,"360":0.03532395533632303,"361":-0.021412018746079807,"362":-0.16301545522883465,"363":0.1372258976792547,"364":-0.11847781409047535,"365":0.0736711546403342,"366":0.004315934149568756,"367":0.052059744738222405,"368":-0.10300628086489211,"369":-0.3695281374331412,"370":-0.20397717968038587,"371":-0.3626306461293483,"372":0.026369020699922675,"373":-0.34357123969097614,"374":0.04747306712505347,"375":0.009378455172112466,"376":-0.003196864500490103,"377":-0.08663461286630353,"378":-0.17717160943444407,"379":0.05378818960748799,"380":-0.3895604938641633,"381":0.11511270069504759,"382":-0.028924219902611802,"383":-0.31806859493674006,"384":-0.008748671466925649,"385":0.106702440928533,"386":-0.160912870285636,"387":-0.3044981040837704,"388":0.1793275263702164,"389":0.22212432099909996,"390":-0.1184154262419805,"391":-0.2084599387348803,"392":0.030881130722299602,"393":-0.25686917770234563,"394":-0.1985412959422897,"395":0.16443371611228078,"396":0.10727369983494858,"397":0.12094937433281094,"398":0.1365809539350714,"399":0.19265668330773553,"400":-0.35561808526635974,"401":-0.06461348410251763,"402":-0.03449534036989032,"403":-0.0855679132408816,"404":-0.006666294944366497,"405":0.2282662028702576,"406":0.18450565294810614,"407":0.03297115891317613,"408":0.12799933296825858,"409":-0.10382365039335166,"410":-0.05206784676821943,"411":0.03307171812603002,"412":0.2214755273659316,"413":0.0628294027777855,"414":0.08587306581320525,"415":-0.24230300156460138,"416":-0.08373264504942386,"417":-0.15793289716379796,"418":-0.2749333547490263,"419":0.06579529430233837}},{"sx":1,"sy":1,"depth":420,"w":{"0":-0.15072886814008138,"1":-0.015597057900158712,"2":-0.07566652094876575,"3":-0.12429865084672011,"4":-0.08404481717767626,"5":-0.24077893771918085,"6":0.07360330929965958,"7":0.01621456010198822,"8":-0.03241635606341164,"9":-0.07011766983718687,"10":0.1954179437815237,"11":0.07078804312274117,"12":-0.08116773440100493,"13":0.01530158389648324,"14":0.057750590915196603,"15":0.01467920930419535,"16":-0.081707894704264,"17":0.10115465646832503,"18":0.04432298166407891,"19":0.16227640036548938,"20":-0.14722735998652842,"21":-0.20244673022236578,"22":-0.29290170714106184,"23":-0.17583614600422057,"24":-0.07066440115110781,"25":0.03621953794469687,"26":0.11406818499486289,"27":-0.11753745690752732,"28":-0.23520438720222456,"29":-0.2994706250151389,"30":-0.23416475562359462,"31":-0.15990011986713687,"32":0.23898365855538373,"33":0.0775570585816609,"34":-0.11617488822637252,"35":-0.1550943268654404,"36":-0.035589614493096264,"37":-0.3207523167108312,"38":-0.07087933335136365,"39":0.06176109086475366,"40":-0.17467047383865436,"41":0.02020094697414997,"42":-0.08107905218759047,"43":0.054493168479019374,"44":-0.1882714548744386,"45":-0.19193611426436955,"46":0.1298603277737138,"47":-0.007302938991934061,"48":0.021206394648093145,"49":-0.05101443567077842,"50":0.21285593091487953,"51":-0.05468431815419779,"52":-0.18819960999902685,"53":0.13607443844628708,"54":-0.16949605214941874,"55":0.01675428996579916,"56":0.07125211516772613,"57":0.06003006994232191,"58":-0.0722039582149647,"59":-0.07270272367110912,"60":0.15756968584806696,"61":-0.0826176587706354,"62":0.011758282451326455,"63":-0.14843268496912015,"64":-0.07218613961067298,"65":0.29102282887086245,"66":-0.25459956351556906,"67":0.2572851395670159,"68":0.019943996385369304,"69":0.08509007049803079,"70":0.06704852946026597,"71":-0.013526991662719236,"72":0.09394525320961739,"73":-0.21783012476620675,"74":0.22775138468450457,"75":0.12021450867468979,"76":-0.057716171624938625,"77":0.22130735757658693,"78":0.04112310301455976,"79":0.08713254731388775,"80":0.003706947885290042,"81":0.08265306294229352,"82":0.24919145565878578,"83":-0.11355134051223378,"84":0.036826992552638126,"85":0.2334179260126566,"86":0.02909463080965233,"87":0.1086264349032524,"88":-0.08197758742686392,"89":0.24609567807378535,"90":-0.08488828270181244,"91":0.1415713401506926,"92":0.19600728003101053,"93":-0.1239769918097651,"94":0.08626644435203655,"95":-0.13080468313839702,"96":0.09914489379881244,"97":-0.3236415284805297,"98":0.07431365944498013,"99":0.2032153375228994,"100":-0.016328343820066836,"101":-0.07405655888196769,"102":0.07765217569719386,"103":0.09795046004210806,"104":-0.08238056108257158,"105":0.01232844713184776,"106":-0.06326891498564362,"107":0.07463003262294887,"108":-0.000641856423321223,"109":-0.18981191873799869,"110":-0.08981339277758492,"111":-0.1780763727539661,"112":0.2431384406403149,"113":-0.08207757132315704,"114":-0.032487145434652184,"115":0.1183033272015176,"116":-0.16895552089817253,"117":-0.009840015497744412,"118":-0.15721113603415346,"119":0.23835854532763745,"120":0.2026244176756277,"121":0.13385105058185498,"122":0.2164286428244842,"123":0.018752799508489126,"124":-0.09701362826140314,"125":-0.32184030310206957,"126":0.17327731806074137,"127":0.09601955072612466,"128":-0.18336344838308707,"129":0.20520644796885118,"130":-0.02690629440578383,"131":-0.5168517561945918,"132":-0.315537502912082,"133":0.15387312206536302,"134":0.09519427176794834,"135":-0.09228388608769596,"136":0.2998379676150971,"137":0.06365713528847898,"138":-0.30938040019979385,"139":-0.28448729069343914,"140":0.16877839523165844,"141":0.1994407670863548,"142":0.08556771519249848,"143":0.1367599787500651,"144":0.002061733241181767,"145":-0.15607978135668163,"146":0.03631300982394265,"147":0.10632507333620352,"148":0.17514824072998042,"149":0.025865342179827416,"150":0.09290231734727805,"151":0.15337606876389764,"152":-0.040934432682976356,"153":0.15238751471296985,"154":0.04504687330361506,"155":0.02469092925114714,"156":-0.014484981885962827,"157":0.009903650219715012,"158":0.13398368237138264,"159":0.055522962143531376,"160":0.00889537768963438,"161":-0.026060151310862128,"162":0.26021054733128457,"163":-0.04564878991513278,"164":0.08670535184417497,"165":0.044968375431173,"166":0.01588186059079481,"167":-0.015478344572464513,"168":-0.031710878945194934,"169":0.0875876956341221,"170":0.03763314044427566,"171":-0.056575722665466496,"172":0.10086285568200813,"173":-0.280127790138372,"174":-0.18146223593201596,"175":0.004882484684893663,"176":0.14145985463511782,"177":0.021049841330712884,"178":-0.13928154912007365,"179":-0.10427147975928175,"180":-0.29649833786898827,"181":0.225874683048315,"182":0.1099111807763108,"183":0.1772486396642345,"184":-0.05676326745778207,"185":-0.07476086473300456,"186":-0.02386754786063334,"187":-0.19360475482209794,"188":0.15138362005820863,"189":0.11827634916931923,"190":0.0022251077976716024,"191":0.05784288246859125,"192":-0.14392607795272935,"193":0.11584849716719295,"194":-0.08681531344313752,"195":-0.06780681568491487,"196":-0.0380246882984228,"197":0.16877700419824404,"198":-0.14087739360358542,"199":0.09792599170524169,"200":0.05773339053062011,"201":-0.0847325199534038,"202":0.030619853479842144,"203":0.21105662709170725,"204":0.25222359759393753,"205":-0.21021646580888295,"206":0.0531665998856045,"207":-0.003502278710726395,"208":0.14665624869031949,"209":-0.1815221348710864,"210":-0.1967458261431898,"211":0.2540995531578836,"212":-0.28009809437197636,"213":-0.1562924541427813,"214":0.010715520401211839,"215":-0.1659582929673146,"216":0.026670414180690417,"217":-0.4083451184740979,"218":0.11872808252495755,"219":-0.20064673306329986,"220":-0.007040691206355618,"221":0.18537184555351988,"222":-0.19551558905755126,"223":-0.12385671270700524,"224":-0.18373506636171202,"225":-0.11935763264756667,"226":-0.242067230683092,"227":-0.12741628187825854,"228":0.13043674774091357,"229":-0.12006065357597179,"230":-0.20095774970159702,"231":-0.19492989191029036,"232":-0.29968179057248057,"233":0.03854713748757572,"234":-0.015728903631662256,"235":-0.08249758246843372,"236":-0.12446177960734055,"237":-0.06291621667388293,"238":0.06112781357142318,"239":-0.15674980170287617,"240":0.09324740244533859,"241":-0.22218255333290096,"242":0.14613205673431987,"243":0.09114723542782899,"244":0.027741942703297637,"245":0.06477169970563147,"246":0.15022571941794619,"247":-0.3129158165334744,"248":0.04234019747631957,"249":-0.14297796891003908,"250":-0.007884432946548725,"251":0.23659485630548518,"252":-0.15423829599033484,"253":0.1481474300622076,"254":-0.2907325944049023,"255":-0.1601988880148858,"256":-0.07706099047200186,"257":-0.014379254101988832,"258":0.2461656150304258,"259":-0.028281043589676775,"260":0.06368383476967471,"261":-0.47333849104642084,"262":0.19749318380817504,"263":-0.20720745759302467,"264":-0.1093001293055973,"265":-0.0020420409075822326,"266":-0.06217820224922026,"267":0.01720606940334824,"268":-0.3869625907652751,"269":0.47155563229427416,"270":-0.4098390616090413,"271":0.11413928131676235,"272":-0.1745874671841336,"273":-0.03914518786832271,"274":-0.10308457244880054,"275":-0.2414316982155981,"276":0.1421963431637646,"277":-0.36657873072936714,"278":-0.09761296465536166,"279":-0.12481432241154569,"280":0.16191092306045685,"281":-0.1248581270721242,"282":-0.14342167304398534,"283":0.29231037646070224,"284":0.03214401006845513,"285":0.24219320279035472,"286":-0.2512574782317271,"287":0.06787436488896238,"288":-0.13861590942357133,"289":-0.27702654620990785,"290":0.1205840829647227,"291":0.061038947890229414,"292":0.02264132480200057,"293":-0.013652709902588087,"294":0.11732347788138542,"295":-0.17990341053524905,"296":-0.12242591531390239,"297":0.026273732051811712,"298":-0.1053841732642271,"299":-0.026996533057591244,"300":0.12501927753116068,"301":-0.15254768781017713,"302":-0.020026559979724627,"303":-0.006408817025350433,"304":-0.2438335658903929,"305":-0.2831681601284608,"306":0.028356284041599365,"307":0.016164006137159705,"308":-0.35263195609015696,"309":-0.04590933081920055,"310":-0.13583877488867144,"311":-0.13490560105282753,"312":-0.3557624460229252,"313":0.05730093889561038,"314":0.08972250911045088,"315":-0.1993189793661625,"316":0.03545869034655418,"317":-0.16515331366528907,"318":-0.21753451281627834,"319":0.07855405457171388,"320":0.09448143344415778,"321":0.12058839932941869,"322":0.0579702289024618,"323":0.1991543266341351,"324":-0.02592748077883341,"325":-0.1452509756189732,"326":-0.21297366097118603,"327":0.16925821884783293,"328":-0.004110843931066185,"329":-0.0025872399507388217,"330":0.22068140446604298,"331":-0.12478794127310723,"332":0.27071397862861557,"333":0.0349879104227983,"334":-0.039924234447840705,"335":-0.04256413958891678,"336":-0.04238674837178074,"337":-0.06558339120604537,"338":-0.1483933486863875,"339":0.15174918835865672,"340":0.0808569045967703,"341":-0.11624525645799662,"342":-0.10736809224609714,"343":-0.06232596288912279,"344":-0.08197084375721207,"345":0.040027999881516875,"346":0.17253546007970919,"347":0.2708945876381268,"348":0.014042449151798806,"349":0.08980989260301528,"350":0.03301138521553563,"351":0.010563229811144447,"352":0.08927924108428785,"353":-0.01110369323574413,"354":0.2557584741579149,"355":-0.19858362747307376,"356":0.12858538635358252,"357":-0.0537653118238305,"358":-0.12759339789781274,"359":0.10728250250731715,"360":-0.018526777856598745,"361":0.040551732463019144,"362":-0.00690424594579671,"363":0.08719067025324652,"364":0.3013109008551896,"365":-0.05707489514281622,"366":0.20435406807877235,"367":-0.009748351910568696,"368":-0.0026908807871289827,"369":0.07302702477019177,"370":0.2077553450696474,"371":0.19288338854322712,"372":0.023716551167267064,"373":0.0016771062711170327,"374":-0.01765427534569667,"375":-0.12656697724719312,"376":0.13070897435296808,"377":0.28830738805412653,"378":0.046291185091096115,"379":-0.0900273559312671,"380":-0.04204114446427429,"381":0.201731064669789,"382":-0.25978502985836227,"383":0.09007899938375315,"384":0.05626413338821936,"385":0.07955986561678449,"386":-0.16086428336217323,"387":-0.055652419209024466,"388":0.2802827101774433,"389":0.007204936384956079,"390":0.08984516502389747,"391":-0.059192703540437014,"392":0.0007943107035291473,"393":0.030857825981640122,"394":0.11975881362458389,"395":0.27860879001516214,"396":-0.058308388249653446,"397":0.06825441155234684,"398":0.07154079881935971,"399":-0.07498749357381576,"400":0.008145757135267554,"401":-0.211448672037224,"402":-0.022083597570492507,"403":-0.2211889881353436,"404":0.02922033808279578,"405":0.01251590555591352,"406":-0.07899725486324073,"407":-0.29807659767194244,"408":-0.043419213433214275,"409":-0.37366252859759297,"410":-0.24920036448658148,"411":0.012539712526472199,"412":0.2555017433301152,"413":0.05236028263855601,"414":-0.24360984812456324,"415":0.040635485576744575,"416":-0.22884457743007872,"417":-0.21617433342011047,"418":-0.42032304483353683,"419":0.010528048100486471}},{"sx":1,"sy":1,"depth":420,"w":{"0":-0.10466109244819742,"1":-0.0013520748837685197,"2":-0.3121207072175241,"3":0.12694872024393722,"4":-0.3150606583690277,"5":-0.2632884718128277,"6":-0.03255847913078352,"7":-0.25285457530094685,"8":-0.07410592418051976,"9":-0.13110439058267231,"10":-0.02334601237508956,"11":-0.07612716963059649,"12":-0.16891770659580121,"13":-0.04229681705121659,"14":-0.23326356036496165,"15":0.06180698225298912,"16":-0.24887212722667118,"17":-0.11344641911978727,"18":-0.3052639097735739,"19":-0.20954091500884578,"20":-0.0530663777502806,"21":-0.06383648864658238,"22":0.11518906951419211,"23":0.04343235282627768,"24":-0.22596189615791143,"25":-0.3034363732327395,"26":-0.29073423350658956,"27":-0.07987511088704931,"28":-0.1254734797534043,"29":0.16476602625724404,"30":0.15468399475605157,"31":-0.05760871593047659,"32":-0.44714291346683094,"33":-0.13601852498788242,"34":0.18759979164271212,"35":-0.02219076709108435,"36":-0.11944068674479297,"37":0.07647742997511177,"38":0.09816489088760412,"39":-0.37455751499194495,"40":-0.08149734635159676,"41":0.0995263924823126,"42":-0.10888940180983082,"43":-0.14824541022675253,"44":-0.0694855277650403,"45":-0.04243807493507136,"46":-0.1781727311775372,"47":0.017337711113337467,"48":0.13049924061207402,"49":0.0943138996131315,"50":-0.04878460971359731,"51":-0.04783083963043879,"52":0.0675953643434658,"53":0.12185953353631448,"54":-0.007315925842347667,"55":0.17566771382188473,"56":0.07590779742467042,"57":-0.023888913944782018,"58":-0.0666366224288315,"59":-0.1253378203950584,"60":-0.04796858839670929,"61":-0.13419875542848356,"62":0.04556786788364949,"63":-0.011329221626938696,"64":0.30572417525419887,"65":-0.06987893900174805,"66":0.044357537722604236,"67":-0.10379455940663652,"68":0.16376456395687192,"69":0.2792764091148459,"70":-0.03602104363397779,"71":0.1343144941410393,"72":-0.058907927488276196,"73":0.3121143592673356,"74":-0.06867068321872248,"75":0.07642813077173864,"76":0.14573920307869492,"77":0.03721393686277634,"78":0.187536421280781,"79":-0.20706666476246682,"80":0.185893709799845,"81":-0.014842904318611804,"82":-0.06824405630556381,"83":-0.016561353462186425,"84":0.059601025704538076,"85":0.2603743644286324,"86":-0.21510273240866193,"87":-0.1699973283846709,"88":-0.21230462345222884,"89":0.021832362326979608,"90":0.07508347515530898,"91":-0.020830298727027616,"92":0.04153685891488131,"93":-0.11936463852848461,"94":-0.06244795050459438,"95":-0.3285968344080669,"96":0.07199596832706696,"97":0.11487745408300588,"98":0.015755515864444722,"99":0.01995379180594457,"100":0.09166268588881586,"101":0.04086709190650255,"102":-0.2995366672928491,"103":0.03890143642834316,"104":0.17111943453277823,"105":-0.20057068444775056,"106":0.11753691679173325,"107":0.059447265222950484,"108":-0.09735483099365258,"109":-0.2936912316170609,"110":0.13580063656048005,"111":0.04591104331033496,"112":-0.08030785603700273,"113":-0.0030837005364116963,"114":-0.0763123018384143,"115":0.12424892663518627,"116":-0.24791902384382347,"117":-0.15469885322380866,"118":-0.13764530229760802,"119":0.03394451270060227,"120":0.18179375634083678,"121":-0.04134562493790668,"122":-0.01189232722526691,"123":-0.3572147398099826,"124":-0.150686134206225,"125":0.221893098529794,"126":0.116081150702926,"127":0.1415917227527554,"128":-0.15545723849213755,"129":0.0180840716562709,"130":-0.3016695859049883,"131":-0.10989035886902662,"132":0.06536299500423094,"133":-0.055620286838663206,"134":0.14268819902755409,"135":-0.0002154621619035159,"136":0.1189539855688627,"137":-0.19279566058583394,"138":-0.23886820851619098,"139":0.009414954133773287,"140":0.0005888526962705879,"141":0.16281790134128182,"142":-0.03484559780653347,"143":0.12278045483019578,"144":-0.1378038865216981,"145":-0.2731932337149305,"146":0.1715679877297161,"147":-0.1396774064804513,"148":0.10361918598747685,"149":-0.08574409908256357,"150":0.13313508861578277,"151":0.07459410103866841,"152":-0.5096190462391736,"153":0.02546533624790096,"154":-0.21546848711260036,"155":-0.0171631475214668,"156":-0.14979140093613388,"157":0.1687117066235875,"158":0.26558263349429084,"159":-0.23991050610363154,"160":0.13401969532748853,"161":-0.05143984667285591,"162":-0.009984220350208219,"163":-0.08075288731813589,"164":-0.0866096760507358,"165":0.12515942942365477,"166":-0.14993947936589475,"167":-0.036718952544846604,"168":-0.01736823297635754,"169":0.14658053955788283,"170":0.03439205135694986,"171":0.18161111632623844,"172":0.2133552726248222,"173":-0.12960660819958847,"174":0.08895871081973465,"175":-0.011359871289036124,"176":-0.03285693217561648,"177":-0.04020090996611269,"178":-0.26747559536293236,"179":0.19849265052591683,"180":-0.07401579677530075,"181":-0.1060990632876905,"182":-0.03635008183883276,"183":-0.019166530200067575,"184":0.2434851228761424,"185":-0.2001916311236069,"186":0.04587253593359772,"187":-0.036124686621093346,"188":-0.056134306638986366,"189":0.0425747277832925,"190":0.01351499923276538,"191":-0.043870730966321256,"192":0.17340397140032165,"193":-0.05366418913919765,"194":-0.2037818414260169,"195":0.26121854778057946,"196":-0.0814224491847092,"197":-0.15215391461764255,"198":-0.001313794518119266,"199":0.057303921934146566,"200":-0.00911040304202154,"201":-0.08448578794906599,"202":0.09281003259868413,"203":-0.050144053905522755,"204":0.009898779644297926,"205":0.0430652783547613,"206":0.05101047968966373,"207":-0.0009823470221626933,"208":-0.0012813009788265992,"209":-0.070660117724927,"210":-0.04896957270626102,"211":0.13188319542934054,"212":0.21723089184294156,"213":-0.13476212684932184,"214":-0.12833755354761575,"215":-0.0160275505472352,"216":-0.1784008233245104,"217":0.15414342015220825,"218":0.12983679065538725,"219":0.15600387715011615,"220":-0.10898415497977493,"221":-0.12228812388513989,"222":0.03001108255391547,"223":-0.02059214200967637,"224":0.2093833623252817,"225":0.20451535686029057,"226":0.14364952396507694,"227":-0.0025880287306372885,"228":0.04876515101398455,"229":0.12090091104485166,"230":0.1404480688423622,"231":0.261241203976904,"232":0.04000208756733463,"233":0.24030456982075435,"234":0.15579534998803593,"235":0.2397743783979954,"236":-0.04157547613888959,"237":-0.012623214753973272,"238":0.36600447936646174,"239":0.0661966434799293,"240":-0.03319861824568015,"241":0.12760312513275643,"242":0.3646579821393864,"243":-0.2075229127058865,"244":-0.06574032692884113,"245":0.21764430095621792,"246":0.2359941789850577,"247":0.043141354707909536,"248":-0.11144666093767747,"249":0.3553260553143284,"250":-0.08442497353296297,"251":-0.07110914422238349,"252":0.022087032826761055,"253":0.309549937833532,"254":-0.10192771553586463,"255":-0.21879249556685276,"256":0.30482709924274287,"257":0.049229970577891004,"258":-0.19708416470582527,"259":0.03759720933935849,"260":0.19407135567810824,"261":-0.12093680226503242,"262":-0.23363708006203707,"263":0.28180352987928964,"264":0.07017324527189471,"265":-0.0922484744374939,"266":-0.1387551191624256,"267":0.21659464901947897,"268":0.019816214256737005,"269":-0.24839158620397758,"270":0.3755557389636709,"271":0.20330897896770134,"272":-0.021802023206817695,"273":-0.07828780530416315,"274":0.19248539882302365,"275":-0.36802470104742174,"276":0.06325446635214588,"277":0.3961429803028575,"278":-0.09749544944221034,"279":-0.08034294872844606,"280":-0.043415188119098655,"281":0.06477118985929038,"282":-0.21911392950336117,"283":-0.037072269129551715,"284":0.2568806328928824,"285":0.11359348217542686,"286":0.0014125137188047,"287":0.03418135021714425,"288":0.27038240054365786,"289":-0.18424311802832788,"290":0.09574486431021922,"291":0.7066303488603417,"292":0.18062053520012109,"293":0.2578770599078231,"294":0.06987893956654913,"295":0.2891320280500021,"296":-0.47155958004237397,"297":-0.07995597073473362,"298":0.411024862230192,"299":0.24350270390303028,"300":0.2258544299015751,"301":0.30341362400656974,"302":0.32393902312749906,"303":-0.3333344904649761,"304":-0.2456787831948753,"305":0.416628563981014,"306":0.2680209683093108,"307":0.2103476906520393,"308":0.14621684985293454,"309":0.2393164655717695,"310":0.09709782112918688,"311":-0.10663307308705283,"312":0.5945298776068967,"313":0.24610460399026618,"314":0.243351925627451,"315":-0.028489170466570193,"316":-0.007826648835870224,"317":-0.
